time	V(out)
0.000000000000000e+000	4.500719e-016
9.999999824516700e-015	1.031482e-006
1.999999964903340e-014	1.375309e-006
3.999999929806680e-014	1.115765e-006
7.999999859613360e-014	5.134173e-007
1.599999971922672e-013	4.660727e-007
3.199999943845344e-013	5.392143e-007
6.399999887690688e-013	1.080634e-007
1.279999977538138e-012	-6.658385e-008
2.559999955076275e-012	6.075979e-009
5.119999910152551e-012	3.658156e-008
1.023999982030510e-011	4.160420e-008
2.047999964061020e-011	2.067644e-007
3.061094946829494e-011	5.605715e-007
4.315335994851596e-011	1.293418e-006
5.576100477591675e-011	2.476734e-006
7.940437529687224e-011	5.811058e-006
1.118795667783234e-010	1.195045e-005
1.473050819900155e-010	1.977364e-005
1.850841345347297e-010	2.773558e-005
2.219498371540338e-010	3.288916e-005
2.602547244915938e-010	3.306575e-005
2.972256191440114e-010	2.581993e-005
3.362684462079304e-010	8.729943e-006
3.667416301360858e-010	-1.274950e-005
3.963276944309761e-010	-4.399292e-005
4.554998230207567e-010	-1.363878e-004
5.492485329589912e-010	-3.516623e-004
6.779064443269057e-010	-7.703353e-004
8.352755982769063e-010	-1.464351e-003
1.080561414943003e-009	-2.860460e-003
1.359524954924545e-009	-4.871361e-003
1.726454039473060e-009	-8.207049e-003
2.195849461209954e-009	-1.361227e-002
3.035793054683968e-009	-2.556377e-002
3.861325234138516e-009	-3.965861e-002
4.861325234138516e-009	-5.948135e-002
5.861325234138515e-009	-8.154646e-002
6.861325234138515e-009	-1.054339e-001
7.861325234138516e-009	-1.306911e-001
8.861325234138517e-009	-1.569550e-001
9.861325234138517e-009	-1.839258e-001
1.086132523413852e-008	-2.113263e-001
1.186132523413852e-008	-2.388573e-001
1.257882496467324e-008	-2.584406e-001
1.323616784233007e-008	-2.759645e-001
1.386381420986075e-008	-2.919493e-001
1.472865855981140e-008	-3.125271e-001
1.541554422030039e-008	-3.274731e-001
1.597461606851270e-008	-3.384649e-001
1.638098106536683e-008	-3.457350e-001
1.672767614972437e-008	-3.514163e-001
1.710909539183415e-008	-3.571981e-001
1.739070009289079e-008	-3.611393e-001
1.778884407599130e-008	-3.662528e-001
1.821515310331397e-008	-3.712474e-001
1.870213387942673e-008	-3.763610e-001
1.928482320460097e-008	-3.817366e-001
2.004761850942218e-008	-3.877627e-001
2.092356715232969e-008	-3.935136e-001
2.192356715232969e-008	-3.988205e-001
2.292356715232969e-008	-4.030356e-001
2.392356715232969e-008	-4.063451e-001
2.492356715232968e-008	-4.089373e-001
2.592356715232968e-008	-4.109633e-001
2.692356715232968e-008	-4.125439e-001
2.792356715232968e-008	-4.137751e-001
2.892356715232968e-008	-4.147331e-001
2.992356715232968e-008	-4.154779e-001
3.092356715232968e-008	-4.160568e-001
3.192356715232968e-008	-4.165068e-001
3.292356715232969e-008	-4.168568e-001
3.392356715232969e-008	-4.171292e-001
3.492356715232969e-008	-4.173418e-001
3.592356715232969e-008	-4.175080e-001
3.692356715232970e-008	-4.176386e-001
3.792356715232970e-008	-4.177415e-001
3.892356715232970e-008	-4.178233e-001
3.992356715232970e-008	-4.178887e-001
4.092356715232970e-008	-4.179415e-001
4.192356715232971e-008	-4.179846e-001
4.292356715232971e-008	-4.180203e-001
4.392356715232971e-008	-4.180503e-001
4.492356715232971e-008	-4.180758e-001
4.592356715232972e-008	-4.180980e-001
4.692356715232972e-008	-4.181175e-001
4.792356715232972e-008	-4.181350e-001
4.892356715232972e-008	-4.181511e-001
4.992356715232973e-008	-4.181659e-001
5.092356715232973e-008	-4.181797e-001
5.192356715232973e-008	-4.181929e-001
5.292356715232973e-008	-4.182054e-001
5.392356715232974e-008	-4.182176e-001
5.492356715232974e-008	-4.182294e-001
5.592356715232974e-008	-4.182408e-001
5.692356715232974e-008	-4.182521e-001
5.792356715232974e-008	-4.182631e-001
5.892356715232975e-008	-4.182739e-001
5.992356715232975e-008	-4.182845e-001
6.092356715232975e-008	-4.182949e-001
6.192356715232974e-008	-4.183050e-001
6.292356715232974e-008	-4.183148e-001
6.392356715232973e-008	-4.183242e-001
6.492356715232973e-008	-4.183331e-001
6.592356715232972e-008	-4.183414e-001
6.692356715232972e-008	-4.183488e-001
6.792356715232972e-008	-4.183551e-001
6.892356715232971e-008	-4.183598e-001
6.992356715232971e-008	-4.183625e-001
7.092356715232970e-008	-4.183622e-001
7.192356715232970e-008	-4.183580e-001
7.292356715232969e-008	-4.183482e-001
7.392356715232969e-008	-4.183307e-001
7.492356715232969e-008	-4.183023e-001
7.592356715232968e-008	-4.182586e-001
7.692356715232968e-008	-4.181932e-001
7.792356715232967e-008	-4.180972e-001
7.892356715232967e-008	-4.179577e-001
7.992356715232966e-008	-4.177555e-001
8.092356715232966e-008	-4.174627e-001
8.192356715232966e-008	-4.170360e-001
8.292356715232965e-008	-4.164075e-001
8.392356715232965e-008	-4.154652e-001
8.492356715232964e-008	-4.140076e-001
8.592356715232964e-008	-4.116355e-001
8.692356715232963e-008	-4.079349e-001
8.747326166927703e-008	-4.049293e-001
8.787642278986645e-008	-4.019076e-001
8.827284272113317e-008	-3.980660e-001
8.889596546859944e-008	-3.906114e-001
8.947760703124758e-008	-3.823336e-001
9.009529305925090e-008	-3.721533e-001
9.083561570333112e-008	-3.583816e-001
9.183561570333112e-008	-3.377615e-001
9.283561570333111e-008	-3.152844e-001
9.383561570333111e-008	-2.911732e-001
9.483561570333110e-008	-2.657415e-001
9.583561570333110e-008	-2.392392e-001
9.683561570333110e-008	-2.118675e-001
9.783561570333109e-008	-1.837905e-001
9.883561570333109e-008	-1.551438e-001
9.983561570333108e-008	-1.260407e-001
1.008356157033311e-007	-9.657808e-002
1.018356157033311e-007	-6.683997e-002
1.028356157033311e-007	-3.690086e-002
1.038356157033311e-007	-6.828332e-003
1.048356157033311e-007	2.331513e-002
1.058356157033311e-007	5.347074e-002
1.068356157033311e-007	8.358282e-002
1.078356157033311e-007	1.135982e-001
1.088356157033310e-007	1.434634e-001
1.098356157033310e-007	1.731140e-001
1.108356157033310e-007	2.024270e-001
1.118356157033310e-007	2.310495e-001
1.128356157033310e-007	2.585433e-001
1.133289401785580e-007	2.712402e-001
1.138153865463683e-007	2.826893e-001
1.143455206637898e-007	2.939170e-001
1.149749508389257e-007	3.055889e-001
1.157445651436759e-007	3.176703e-001
1.167445651436759e-007	3.305790e-001
1.177445651436759e-007	3.409852e-001
1.187445651436759e-007	3.492944e-001
1.197445651436759e-007	3.559922e-001
1.207445651436759e-007	3.614476e-001
1.217445651436759e-007	3.659388e-001
1.227445651436759e-007	3.696747e-001
1.237445651436759e-007	3.728124e-001
1.247445651436759e-007	3.754702e-001
1.257445651436759e-007	3.777377e-001
1.267445651436759e-007	3.796833e-001
1.277445651436759e-007	3.813602e-001
1.287445651436759e-007	3.828103e-001
1.297445651436759e-007	3.840677e-001
1.307445651436759e-007	3.851603e-001
1.317445651436759e-007	3.861114e-001
1.327445651436759e-007	3.869408e-001
1.337445651436759e-007	3.876648e-001
1.347445651436759e-007	3.882976e-001
1.357445651436759e-007	3.888512e-001
1.367445651436759e-007	3.893362e-001
1.377445651436759e-007	3.897614e-001
1.387445651436759e-007	3.901345e-001
1.397445651436758e-007	3.904625e-001
1.407445651436758e-007	3.907511e-001
1.417445651436758e-007	3.910054e-001
1.427445651436758e-007	3.912298e-001
1.437445651436758e-007	3.914283e-001
1.447445651436758e-007	3.916041e-001
1.457445651436758e-007	3.917601e-001
1.467445651436758e-007	3.918987e-001
1.477445651436758e-007	3.920220e-001
1.487445651436758e-007	3.921316e-001
1.497445651436758e-007	3.922291e-001
1.507445651436758e-007	3.923155e-001
1.517445651436758e-007	3.923918e-001
1.527445651436758e-007	3.924586e-001
1.537445651436758e-007	3.925164e-001
1.547445651436758e-007	3.925654e-001
1.557445651436758e-007	3.926057e-001
1.567445651436758e-007	3.926370e-001
1.577445651436758e-007	3.926590e-001
1.587445651436758e-007	3.926711e-001
1.597445651436758e-007	3.926724e-001
1.607445651436758e-007	3.926618e-001
1.617445651436758e-007	3.926379e-001
1.627445651436757e-007	3.925990e-001
1.637445651436757e-007	3.925430e-001
1.647445651436757e-007	3.924674e-001
1.657445651436757e-007	3.923696e-001
1.667445651436757e-007	3.922461e-001
1.677445651436757e-007	3.920933e-001
1.687445651436757e-007	3.919068e-001
1.697445651436757e-007	3.916817e-001
1.707445651436757e-007	3.914126e-001
1.717445651436757e-007	3.910929e-001
1.727445651436757e-007	3.907155e-001
1.737445651436757e-007	3.902724e-001
1.747445651436757e-007	3.897545e-001
1.757445651436757e-007	3.891521e-001
1.767445651436757e-007	3.884549e-001
1.777445651436757e-007	3.876520e-001
1.787445651436757e-007	3.867315e-001
1.797445651436757e-007	3.856800e-001
1.807445651436757e-007	3.844808e-001
1.817445651436757e-007	3.831124e-001
1.827445651436757e-007	3.815446e-001
1.837445651436757e-007	3.797331e-001
1.847445651436757e-007	3.776085e-001
1.857445651436756e-007	3.750538e-001
1.867445651436756e-007	3.718520e-001
1.877445651436756e-007	3.675655e-001
1.887445651436756e-007	3.613918e-001
1.897445651436756e-007	3.523295e-001
1.907445651436756e-007	3.397813e-001
1.917445651436756e-007	3.238793e-001
1.927445651436756e-007	3.051343e-001
1.937445651436756e-007	2.840549e-001
1.947445651436756e-007	2.610711e-001
1.957445651436756e-007	2.365371e-001
1.967445651436756e-007	2.107425e-001
1.977445651436756e-007	1.839240e-001
1.987445651436756e-007	1.562748e-001
1.997445651436756e-007	1.279545e-001
2.007445651436756e-007	9.909625e-002
2.017445651436756e-007	6.981328e-002
2.027445651436756e-007	4.020286e-002
2.037445651436756e-007	1.034984e-002
2.047445651436756e-007	-1.967081e-002
2.057445651436756e-007	-4.979227e-002
2.067445651436756e-007	-7.995390e-002
2.077445651436756e-007	-1.100996e-001
2.087445651436756e-007	-1.401753e-001
2.097445651436755e-007	-1.701229e-001
2.107445651436755e-007	-1.998602e-001
2.117445651436755e-007	-2.292369e-001
2.126364870221711e-007	-2.548884e-001
2.133524483014592e-007	-2.747616e-001
2.140392372774851e-007	-2.927932e-001
2.148186398307189e-007	-3.117683e-001
2.154834756519142e-007	-3.264787e-001
2.160821690804413e-007	-3.383991e-001
2.165217006982235e-007	-3.463118e-001
2.168841517964019e-007	-3.522428e-001
2.172820084029862e-007	-3.582340e-001
2.175632581836286e-007	-3.621314e-001
2.179665189812479e-007	-3.672461e-001
2.183986574260204e-007	-3.722337e-001
2.189025778849003e-007	-3.774297e-001
2.194965411446650e-007	-3.827884e-001
2.202784227506830e-007	-3.888007e-001
2.211655325660462e-007	-3.944472e-001
2.221655325660462e-007	-3.995740e-001
2.231655325660462e-007	-4.036369e-001
2.241655325660462e-007	-4.068224e-001
2.251655325660462e-007	-4.093145e-001
2.261655325660462e-007	-4.112604e-001
2.271655325660462e-007	-4.127771e-001
2.281655325660462e-007	-4.139577e-001
2.291655325660462e-007	-4.148758e-001
2.301655325660462e-007	-4.155892e-001
2.311655325660462e-007	-4.161435e-001
2.321655325660462e-007	-4.165742e-001
2.331655325660462e-007	-4.169091e-001
2.341655325660462e-007	-4.171699e-001
2.351655325660462e-007	-4.173734e-001
2.361655325660462e-007	-4.175326e-001
2.371655325660461e-007	-4.176577e-001
2.381655325660461e-007	-4.177564e-001
2.391655325660462e-007	-4.178349e-001
2.401655325660462e-007	-4.178978e-001
2.411655325660462e-007	-4.179486e-001
2.421655325660462e-007	-4.179903e-001
2.431655325660463e-007	-4.180248e-001
2.441655325660463e-007	-4.180538e-001
2.451655325660463e-007	-4.180787e-001
2.461655325660463e-007	-4.181003e-001
2.471655325660463e-007	-4.181195e-001
2.481655325660464e-007	-4.181367e-001
2.491655325660464e-007	-4.181525e-001
2.501655325660464e-007	-4.181671e-001
2.511655325660464e-007	-4.181808e-001
2.521655325660465e-007	-4.181938e-001
2.531655325660465e-007	-4.182063e-001
2.541655325660465e-007	-4.182183e-001
2.551655325660465e-007	-4.182301e-001
2.561655325660465e-007	-4.182415e-001
2.571655325660466e-007	-4.182527e-001
2.581655325660466e-007	-4.182636e-001
2.591655325660466e-007	-4.182744e-001
2.601655325660466e-007	-4.182850e-001
2.611655325660467e-007	-4.182953e-001
2.621655325660467e-007	-4.183053e-001
2.631655325660467e-007	-4.183151e-001
2.641655325660467e-007	-4.183244e-001
2.651655325660467e-007	-4.183331e-001
2.661655325660468e-007	-4.183412e-001
2.671655325660468e-007	-4.183484e-001
2.681655325660468e-007	-4.183543e-001
2.691655325660468e-007	-4.183586e-001
2.701655325660469e-007	-4.183607e-001
2.711655325660469e-007	-4.183595e-001
2.721655325660469e-007	-4.183542e-001
2.731655325660469e-007	-4.183427e-001
2.741655325660469e-007	-4.183229e-001
2.751655325660470e-007	-4.182913e-001
2.761655325660470e-007	-4.182430e-001
2.771655325660470e-007	-4.181712e-001
2.781655325660470e-007	-4.180660e-001
2.791655325660471e-007	-4.179132e-001
2.801655325660471e-007	-4.176921e-001
2.811655325660471e-007	-4.173716e-001
2.821655325660471e-007	-4.169036e-001
2.831655325660471e-007	-4.162118e-001
2.841655325660472e-007	-4.151684e-001
2.851655325660472e-007	-4.135375e-001
2.861655325660472e-007	-4.108438e-001
2.871655325660472e-007	-4.066322e-001
2.876722678335735e-007	-4.034755e-001
2.880963927386212e-007	-3.998753e-001
2.885306910798960e-007	-3.952580e-001
2.890306083587266e-007	-3.888484e-001
2.896598819638328e-007	-3.794426e-001
2.902762436794040e-007	-3.689001e-001
2.911648939148842e-007	-3.517909e-001
2.921648939148842e-007	-3.305573e-001
2.931648939148842e-007	-3.075040e-001
2.941648939148843e-007	-2.829278e-001
2.951648939148843e-007	-2.571194e-001
2.961648939148843e-007	-2.303112e-001
2.971648939148843e-007	-2.026912e-001
2.981648939148843e-007	-1.744132e-001
2.991648939148844e-007	-1.456048e-001
3.001648939148844e-007	-1.163736e-001
3.011648939148844e-007	-8.681166e-002
3.021648939148844e-007	-5.699965e-002
3.031648939148845e-007	-2.700953e-002
3.041648939148845e-007	3.092985e-003
3.051648939148845e-007	3.324671e-002
3.061648939148845e-007	6.339397e-002
3.071648939148845e-007	9.347995e-002
3.081648939148846e-007	1.234519e-001
3.091648939148846e-007	1.532549e-001
3.101648939148846e-007	1.828138e-001
3.111648939148846e-007	2.119585e-001
3.121648939148847e-007	2.401929e-001
3.131648939148847e-007	2.669801e-001
3.136114596275229e-007	2.779272e-001
3.142392849638952e-007	2.916842e-001
3.148020876449363e-007	3.026139e-001
3.154091094266784e-007	3.126764e-001
3.164091094266784e-007	3.264943e-001
3.174091094266784e-007	3.377426e-001
3.184091094266785e-007	3.466988e-001
3.194091094266785e-007	3.538937e-001
3.204091094266785e-007	3.597330e-001
3.214091094266785e-007	3.645228e-001
3.224091094266785e-007	3.684934e-001
3.234091094266786e-007	3.718177e-001
3.244091094266786e-007	3.746260e-001
3.254091094266786e-007	3.770163e-001
3.264091094266786e-007	3.790637e-001
3.274091094266787e-007	3.808258e-001
3.284091094266787e-007	3.823481e-001
3.294091094266787e-007	3.836669e-001
3.304091094266787e-007	3.848121e-001
3.314091094266787e-007	3.858085e-001
3.324091094266788e-007	3.866767e-001
3.334091094266788e-007	3.874344e-001
3.344091094266788e-007	3.880964e-001
3.354091094266788e-007	3.886754e-001
3.364091094266789e-007	3.891823e-001
3.374091094266789e-007	3.896267e-001
3.384091094266789e-007	3.900165e-001
3.394091094266789e-007	3.903589e-001
3.404091094266789e-007	3.906601e-001
3.414091094266790e-007	3.909254e-001
3.424091094266790e-007	3.911594e-001
3.434091094266790e-007	3.913662e-001
3.444091094266790e-007	3.915493e-001
3.454091094266791e-007	3.917117e-001
3.464091094266791e-007	3.918559e-001
3.474091094266791e-007	3.919841e-001
3.484091094266791e-007	3.920981e-001
3.494091094266791e-007	3.921996e-001
3.504091094266792e-007	3.922896e-001
3.514091094266792e-007	3.923692e-001
3.524091094266792e-007	3.924391e-001
3.534091094266792e-007	3.924999e-001
3.544091094266793e-007	3.925518e-001
3.554091094266793e-007	3.925951e-001
3.564091094266793e-007	3.926294e-001
3.574091094266793e-007	3.926546e-001
3.584091094266793e-007	3.926701e-001
3.594091094266794e-007	3.926751e-001
3.604091094266794e-007	3.926687e-001
3.614091094266794e-007	3.926494e-001
3.624091094266794e-007	3.926157e-001
3.634091094266795e-007	3.925657e-001
3.644091094266795e-007	3.924970e-001
3.654091094266795e-007	3.924070e-001
3.664091094266795e-007	3.922925e-001
3.674091094266795e-007	3.921499e-001
3.684091094266796e-007	3.919752e-001
3.694091094266796e-007	3.917637e-001
3.704091094266796e-007	3.915100e-001
3.714091094266796e-007	3.912080e-001
3.724091094266797e-007	3.908509e-001
3.734091094266797e-007	3.904307e-001
3.744091094266797e-007	3.899390e-001
3.754091094266797e-007	3.893660e-001
3.764091094266797e-007	3.887018e-001
3.774091094266798e-007	3.879356e-001
3.784091094266798e-007	3.870560e-001
3.794091094266798e-007	3.860500e-001
3.804091094266798e-007	3.849024e-001
3.814091094266799e-007	3.835936e-001
3.824091094266799e-007	3.820968e-001
3.834091094266799e-007	3.803732e-001
3.844091094266799e-007	3.783635e-001
3.854091094266799e-007	3.759704e-001
3.864091094266800e-007	3.730198e-001
3.874091094266800e-007	3.691669e-001
3.884091094266800e-007	3.637378e-001
3.894091094266800e-007	3.557445e-001
3.904091094266801e-007	3.444589e-001
3.913202648410158e-007	3.310738e-001
3.923202648410158e-007	3.133956e-001
3.933202648410158e-007	2.932509e-001
3.943202648410158e-007	2.710285e-001
3.953202648410159e-007	2.471142e-001
3.963202648410159e-007	2.218231e-001
3.973202648410159e-007	1.954136e-001
3.983202648410159e-007	1.680958e-001
3.993202648410160e-007	1.400428e-001
4.003202648410160e-007	1.113981e-001
4.013202648410160e-007	8.228279e-002
4.023202648410160e-007	5.280041e-002
4.033202648410160e-007	2.304071e-002
4.043202648410161e-007	-6.917327e-003
4.053202648410161e-007	-3.700371e-002
4.063202648410161e-007	-6.715532e-002
4.073202648410161e-007	-9.731442e-002
4.083202648410162e-007	-1.274265e-001
4.093202648410162e-007	-1.574362e-001
4.103202648410162e-007	-1.872763e-001
4.113202648410162e-007	-2.168237e-001
4.123202648410162e-007	-2.458936e-001
4.130162398882311e-007	-2.655320e-001
4.137844967250984e-007	-2.862177e-001
4.145052432325718e-007	-3.043882e-001
4.151810368355540e-007	-3.199687e-001
4.158621736936655e-007	-3.341435e-001
4.163688038065149e-007	-3.436410e-001
4.167533150727575e-007	-3.501382e-001
4.171960867692608e-007	-3.569568e-001
4.175435691104850e-007	-3.618358e-001
4.179870322664269e-007	-3.674932e-001
4.183901222219653e-007	-3.721485e-001
4.189009353118031e-007	-3.774143e-001
4.194853103430572e-007	-3.826903e-001
4.202892819564591e-007	-3.888762e-001
4.211549946989795e-007	-3.943932e-001
4.221549946989795e-007	-3.995247e-001
4.231549946989796e-007	-4.035978e-001
4.241549946989796e-007	-4.067914e-001
4.251549946989796e-007	-4.092898e-001
4.261549946989796e-007	-4.112406e-001
4.271549946989797e-007	-4.127613e-001
4.281549946989797e-007	-4.139449e-001
4.291549946989797e-007	-4.148654e-001
4.301549946989797e-007	-4.155807e-001
4.311549946989797e-007	-4.161364e-001
4.321549946989798e-007	-4.165682e-001
4.331549946989798e-007	-4.169040e-001
4.341549946989798e-007	-4.171655e-001
4.351549946989798e-007	-4.173695e-001
4.361549946989799e-007	-4.175291e-001
4.371549946989799e-007	-4.176545e-001
4.381549946989799e-007	-4.177535e-001
4.391549946989799e-007	-4.178321e-001
4.401549946989799e-007	-4.178951e-001
4.411549946989800e-007	-4.179461e-001
4.421549946989800e-007	-4.179878e-001
4.431549946989800e-007	-4.180224e-001
4.441549946989800e-007	-4.180515e-001
4.451549946989801e-007	-4.180764e-001
4.461549946989801e-007	-4.180981e-001
4.471549946989801e-007	-4.181172e-001
4.481549946989801e-007	-4.181345e-001
4.491549946989801e-007	-4.181502e-001
4.501549946989802e-007	-4.181648e-001
4.511549946989802e-007	-4.181786e-001
4.521549946989802e-007	-4.181916e-001
4.531549946989802e-007	-4.182041e-001
4.541549946989803e-007	-4.182162e-001
4.551549946989803e-007	-4.182279e-001
4.561549946989803e-007	-4.182393e-001
4.571549946989803e-007	-4.182505e-001
4.581549946989803e-007	-4.182615e-001
4.591549946989804e-007	-4.182723e-001
4.601549946989804e-007	-4.182828e-001
4.611549946989804e-007	-4.182931e-001
4.621549946989804e-007	-4.183032e-001
4.631549946989805e-007	-4.183129e-001
4.641549946989805e-007	-4.183222e-001
4.651549946989805e-007	-4.183310e-001
4.661549946989805e-007	-4.183391e-001
4.671549946989805e-007	-4.183463e-001
4.681549946989806e-007	-4.183522e-001
4.691549946989806e-007	-4.183565e-001
4.701549946989806e-007	-4.183586e-001
4.711549946989806e-007	-4.183575e-001
4.721549946989807e-007	-4.183522e-001
4.731549946989807e-007	-4.183408e-001
4.741549946989807e-007	-4.183211e-001
4.751549946989807e-007	-4.182896e-001
4.761549946989807e-007	-4.182416e-001
4.771549946989808e-007	-4.181700e-001
4.781549946989807e-007	-4.180652e-001
4.791549946989807e-007	-4.179131e-001
4.801549946989807e-007	-4.176929e-001
4.811549946989806e-007	-4.173736e-001
4.821549946989806e-007	-4.169075e-001
4.831549946989806e-007	-4.162187e-001
4.841549946989806e-007	-4.151800e-001
4.851549946989805e-007	-4.135572e-001
4.861549946989805e-007	-4.108787e-001
4.871549946989805e-007	-4.066995e-001
4.876536949724667e-007	-4.036239e-001
4.880707543341688e-007	-4.001255e-001
4.884976324784409e-007	-3.956386e-001
4.890035796650096e-007	-3.892110e-001
4.896355269154524e-007	-3.798327e-001
4.902443554356139e-007	-3.694792e-001
4.911163607456660e-007	-3.527735e-001
4.921163607456659e-007	-3.316315e-001
4.931163607456659e-007	-3.086607e-001
4.941163607456659e-007	-2.841512e-001
4.951163607456659e-007	-2.583968e-001
4.961163607456658e-007	-2.316324e-001
4.971163607456658e-007	-2.040480e-001
4.981163607456658e-007	-1.757988e-001
4.991163607456657e-007	-1.470136e-001
5.001163607456657e-007	-1.178006e-001
5.011163607456657e-007	-8.825281e-002
5.021163607456656e-007	-5.845122e-002
5.031163607456656e-007	-2.846818e-002
5.041163607456656e-007	1.630323e-003
5.051163607456655e-007	3.178292e-002
5.061163607456655e-007	6.193176e-002
5.071163607456655e-007	9.202195e-002
5.081163607456655e-007	1.220007e-001
5.091163607456654e-007	1.518132e-001
5.101163607456654e-007	1.813866e-001
5.111163607456654e-007	2.105589e-001
5.121163607456653e-007	2.388573e-001
5.131163607456653e-007	2.657568e-001
5.135720181471448e-007	2.770015e-001
5.141980383475704e-007	2.908312e-001
5.147685183664983e-007	3.020066e-001
5.153670254166603e-007	3.120202e-001
5.163670254166602e-007	3.259664e-001
5.173670254166602e-007	3.373240e-001
5.183670254166602e-007	3.463643e-001
5.193670254166601e-007	3.536239e-001
5.203670254166601e-007	3.595130e-001
5.213670254166601e-007	3.643416e-001
5.223670254166601e-007	3.683426e-001
5.233670254166600e-007	3.716912e-001
5.243670254166600e-007	3.745188e-001
5.253670254166600e-007	3.769251e-001
5.263670254166599e-007	3.789856e-001
5.273670254166599e-007	3.807586e-001
5.283670254166599e-007	3.822902e-001
5.293670254166598e-007	3.836169e-001
5.303670254166598e-007	3.847688e-001
5.313670254166598e-007	3.857710e-001
5.323670254166598e-007	3.866443e-001
5.333670254166597e-007	3.874063e-001
5.343670254166597e-007	3.880721e-001
5.353670254166597e-007	3.886543e-001
5.363670254166596e-007	3.891641e-001
5.373670254166596e-007	3.896109e-001
5.383670254166596e-007	3.900029e-001
5.393670254166595e-007	3.903472e-001
5.403670254166595e-007	3.906501e-001
5.413670254166595e-007	3.909168e-001
5.423670254166594e-007	3.911520e-001
5.433670254166594e-007	3.913599e-001
5.443670254166594e-007	3.915439e-001
5.453670254166594e-007	3.917071e-001
5.463670254166593e-007	3.918520e-001
5.473670254166593e-007	3.919809e-001
5.483670254166593e-007	3.920955e-001
5.493670254166592e-007	3.921974e-001
5.503670254166592e-007	3.922879e-001
5.513670254166592e-007	3.923679e-001
5.523670254166591e-007	3.924383e-001
5.533670254166591e-007	3.924994e-001
5.543670254166591e-007	3.925517e-001
5.553670254166590e-007	3.925953e-001
5.563670254166590e-007	3.926300e-001
5.573670254166590e-007	3.926556e-001
5.583670254166590e-007	3.926716e-001
5.593670254166589e-007	3.926771e-001
5.603670254166589e-007	3.926711e-001
5.613670254166589e-007	3.926524e-001
5.623670254166588e-007	3.926194e-001
5.633670254166588e-007	3.925700e-001
5.643670254166588e-007	3.925022e-001
5.653670254166587e-007	3.924131e-001
5.663670254166587e-007	3.922997e-001
5.673670254166587e-007	3.921584e-001
5.683670254166586e-007	3.919851e-001
5.693670254166586e-007	3.917753e-001
5.703670254166586e-007	3.915235e-001
5.713670254166586e-007	3.912237e-001
5.723670254166585e-007	3.908690e-001
5.733670254166585e-007	3.904516e-001
5.743670254166585e-007	3.899630e-001
5.753670254166584e-007	3.893937e-001
5.763670254166584e-007	3.887336e-001
5.773670254166584e-007	3.879719e-001
5.783670254166583e-007	3.870972e-001
5.793670254166583e-007	3.860968e-001
5.803670254166583e-007	3.849556e-001
5.813670254166582e-007	3.836540e-001
5.823670254166582e-007	3.821657e-001
5.833670254166582e-007	3.804526e-001
5.843670254166582e-007	3.784566e-001
5.853670254166581e-007	3.760823e-001
5.863670254166581e-007	3.731604e-001
5.873670254166581e-007	3.693562e-001
5.883670254166580e-007	3.640119e-001
5.893670254166580e-007	3.561463e-001
5.903670254166580e-007	3.450141e-001
5.912734922835261e-007	3.318312e-001
5.922734922835261e-007	3.142799e-001
5.932734922835261e-007	2.942429e-001
5.942734922835260e-007	2.721085e-001
5.952734922835260e-007	2.482658e-001
5.962734922835260e-007	2.230329e-001
5.972734922835259e-007	1.966707e-001
5.982734922835259e-007	1.693913e-001
5.992734922835259e-007	1.413693e-001
6.002734922835258e-007	1.127495e-001
6.012734922835258e-007	8.365369e-002
6.022734922835258e-007	5.418638e-002
6.032734922835257e-007	2.443781e-002
6.042734922835257e-007	-5.512571e-003
6.052734922835257e-007	-3.559440e-002
6.062734922835257e-007	-6.574429e-002
6.072734922835256e-007	-9.590427e-002
6.082734922835256e-007	-1.260197e-001
6.092734922835256e-007	-1.560356e-001
6.102734922835255e-007	-1.858856e-001
6.112734922835255e-007	-2.154513e-001
6.122734922835255e-007	-2.445500e-001
6.129875292857690e-007	-2.647273e-001
6.137677907017039e-007	-2.857789e-001
6.144820908783248e-007	-3.038297e-001
6.151603340946041e-007	-3.194629e-001
6.159216121026450e-007	-3.352504e-001
6.164290183711489e-007	-3.446964e-001
6.167942924878280e-007	-3.508065e-001
6.172220626751950e-007	-3.573525e-001
6.175248740436563e-007	-3.616071e-001
6.179195738478150e-007	-3.666722e-001
6.183446069436498e-007	-3.716377e-001
6.188326633802669e-007	-3.767429e-001
6.194202356439762e-007	-3.821374e-001
6.201746238309166e-007	-3.880613e-001
6.210522909890444e-007	-3.937817e-001
6.220522909890444e-007	-3.990458e-001
6.230522909890443e-007	-4.032213e-001
6.240522909890443e-007	-4.064960e-001
6.250522909890443e-007	-4.090586e-001
6.260522909890442e-007	-4.110598e-001
6.270522909890442e-007	-4.126200e-001
6.280522909890442e-007	-4.138345e-001
6.290522909890441e-007	-4.147791e-001
6.300522909890441e-007	-4.155132e-001
6.310522909890441e-007	-4.160835e-001
6.320522909890441e-007	-4.165267e-001
6.330522909890440e-007	-4.168712e-001
6.340522909890440e-007	-4.171395e-001
6.350522909890440e-007	-4.173487e-001
6.360522909890439e-007	-4.175124e-001
6.370522909890439e-007	-4.176409e-001
6.380522909890439e-007	-4.177423e-001
6.390522909890438e-007	-4.178228e-001
6.400522909890438e-007	-4.178872e-001
6.410522909890438e-007	-4.179393e-001
6.420522909890437e-007	-4.179818e-001
6.430522909890437e-007	-4.180171e-001
6.440522909890437e-007	-4.180467e-001
6.450522909890437e-007	-4.180720e-001
6.460522909890436e-007	-4.180939e-001
6.470522909890436e-007	-4.181133e-001
6.480522909890436e-007	-4.181307e-001
6.490522909890435e-007	-4.181466e-001
6.500522909890435e-007	-4.181613e-001
6.510522909890435e-007	-4.181751e-001
6.520522909890434e-007	-4.181882e-001
6.530522909890434e-007	-4.182008e-001
6.540522909890434e-007	-4.182129e-001
6.550522909890433e-007	-4.182246e-001
6.560522909890433e-007	-4.182361e-001
6.570522909890433e-007	-4.182473e-001
6.580522909890433e-007	-4.182583e-001
6.590522909890432e-007	-4.182691e-001
6.600522909890432e-007	-4.182797e-001
6.610522909890432e-007	-4.182900e-001
6.620522909890431e-007	-4.183001e-001
6.630522909890431e-007	-4.183099e-001
6.640522909890431e-007	-4.183192e-001
6.650522909890430e-007	-4.183281e-001
6.660522909890430e-007	-4.183363e-001
6.670522909890430e-007	-4.183435e-001
6.680522909890429e-007	-4.183497e-001
6.690522909890429e-007	-4.183542e-001
6.700522909890429e-007	-4.183565e-001
6.710522909890429e-007	-4.183558e-001
6.720522909890428e-007	-4.183509e-001
6.730522909890428e-007	-4.183403e-001
6.740522909890428e-007	-4.183216e-001
6.750522909890427e-007	-4.182915e-001
6.760522909890427e-007	-4.182454e-001
6.770522909890427e-007	-4.181767e-001
6.780522909890426e-007	-4.180759e-001
6.790522909890426e-007	-4.179294e-001
6.800522909890426e-007	-4.177174e-001
6.810522909890425e-007	-4.174102e-001
6.820522909890425e-007	-4.169620e-001
6.830522909890425e-007	-4.163008e-001
6.840522909890425e-007	-4.153064e-001
6.850522909890424e-007	-4.137598e-001
6.860522909890424e-007	-4.112231e-001
6.870522909890424e-007	-4.072608e-001
6.875784484174969e-007	-4.041896e-001
6.879717090687581e-007	-4.010628e-001
6.883766042612226e-007	-3.969883e-001
6.889126770078196e-007	-3.904011e-001
6.895617086527673e-007	-3.810021e-001
6.901479139100890e-007	-3.712172e-001
6.909669922823880e-007	-3.557676e-001
6.919669922823880e-007	-3.349109e-001
6.929669922823880e-007	-3.121993e-001
6.939669922823879e-007	-2.878989e-001
6.949669922823879e-007	-2.623139e-001
6.959669922823879e-007	-2.356872e-001
6.969669922823878e-007	-2.082144e-001
6.979669922823878e-007	-1.800556e-001
6.989669922823878e-007	-1.513430e-001
6.999669922823877e-007	-1.221877e-001
7.009669922823877e-007	-9.268440e-002
7.019669922823877e-007	-6.291588e-002
7.029669922823877e-007	-3.295558e-002
7.039669922823876e-007	-2.870296e-003
7.049669922823876e-007	2.727800e-002
7.059669922823876e-007	5.743099e-002
7.069669922823875e-007	8.753334e-002
7.079669922823875e-007	1.175321e-001
7.089669922823875e-007	1.473733e-001
7.099669922823874e-007	1.769890e-001
7.109669922823874e-007	2.062399e-001
7.119669922823874e-007	2.347201e-001
7.129669922823873e-007	2.619584e-001
7.134325497565820e-007	2.737311e-001
7.139747808832860e-007	2.861540e-001
7.145351102551182e-007	2.976557e-001
7.151073041741918e-007	3.078359e-001
7.160013748275978e-007	3.212124e-001
7.170013748275978e-007	3.334802e-001
7.180013748275977e-007	3.432961e-001
7.190013748275977e-007	3.511519e-001
7.200013748275977e-007	3.575007e-001
7.210013748275976e-007	3.626860e-001
7.220013748275976e-007	3.669663e-001
7.230013748275976e-007	3.705359e-001
7.240013748275975e-007	3.735408e-001
7.250013748275975e-007	3.760911e-001
7.260013748275975e-007	3.782704e-001
7.270013748275975e-007	3.801426e-001
7.280013748275974e-007	3.817577e-001
7.290013748275974e-007	3.831555e-001
7.300013748275974e-007	3.843682e-001
7.310013748275973e-007	3.854225e-001
7.320013748275973e-007	3.863407e-001
7.330013748275973e-007	3.871416e-001
7.340013748275972e-007	3.878409e-001
7.350013748275972e-007	3.884523e-001
7.360013748275972e-007	3.889874e-001
7.370013748275971e-007	3.894563e-001
7.380013748275971e-007	3.898674e-001
7.390013748275971e-007	3.902284e-001
7.400013748275971e-007	3.905457e-001
7.410013748275970e-007	3.908250e-001
7.420013748275970e-007	3.910713e-001
7.430013748275970e-007	3.912887e-001
7.440013748275969e-007	3.914811e-001
7.450013748275969e-007	3.916516e-001
7.460013748275969e-007	3.918029e-001
7.470013748275968e-007	3.919374e-001
7.480013748275968e-007	3.920570e-001
7.490013748275968e-007	3.921635e-001
7.500013748275967e-007	3.922580e-001
7.510013748275967e-007	3.923417e-001
7.520013748275967e-007	3.924156e-001
7.530013748275967e-007	3.924800e-001
7.540013748275966e-007	3.925355e-001
7.550013748275966e-007	3.925823e-001
7.560013748275966e-007	3.926203e-001
7.570013748275965e-007	3.926492e-001
7.580013748275965e-007	3.926688e-001
7.590013748275965e-007	3.926782e-001
7.600013748275964e-007	3.926766e-001
7.610013748275964e-007	3.926627e-001
7.620013748275964e-007	3.926351e-001
7.630013748275963e-007	3.925920e-001
7.640013748275963e-007	3.925312e-001
7.650013748275963e-007	3.924502e-001
7.660013748275963e-007	3.923461e-001
7.670013748275962e-007	3.922154e-001
7.680013748275962e-007	3.920544e-001
7.690013748275962e-007	3.918585e-001
7.700013748275961e-007	3.916226e-001
7.710013748275961e-007	3.913411e-001
7.720013748275961e-007	3.910074e-001
7.730013748275960e-007	3.906139e-001
7.740013748275960e-007	3.901524e-001
7.750013748275960e-007	3.896137e-001
7.760013748275959e-007	3.889880e-001
7.770013748275959e-007	3.882647e-001
7.780013748275959e-007	3.874327e-001
7.790013748275959e-007	3.864799e-001
7.800013748275958e-007	3.853921e-001
7.810013748275958e-007	3.841518e-001
7.820013748275958e-007	3.827354e-001
7.830013748275957e-007	3.811099e-001
7.840013748275957e-007	3.792259e-001
7.850013748275957e-007	3.770048e-001
7.860013748275956e-007	3.743106e-001
7.870013748275956e-007	3.708846e-001
7.880013748275956e-007	3.662048e-001
7.890013748275956e-007	3.593799e-001
7.900013748275955e-007	3.494934e-001
7.909511733831799e-007	3.367993e-001
7.919511733831798e-007	3.202205e-001
7.929511733831798e-007	3.009544e-001
7.939511733831798e-007	2.794490e-001
7.949511733831797e-007	2.561185e-001
7.959511733831797e-007	2.313023e-001
7.969511733831797e-007	2.052785e-001
7.979511733831796e-007	1.782738e-001
7.989511733831796e-007	1.504738e-001
7.999511733831796e-007	1.221526e-001
8.000000000000000e-007	1.207547e-001
