time	V(out)
0.000000000000000e+000	4.499958e-017
7.812499968782791e-015	5.692485e-007
1.562499993756558e-014	7.589979e-007
6.249999975026233e-014	4.543688e-008
1.249999995005247e-013	-1.462950e-007
2.499999990010493e-013	-1.759573e-008
4.999999980020986e-013	-1.976186e-008
9.999999960041972e-013	-9.520099e-009
1.999999992008394e-012	9.103986e-010
3.999999984016789e-012	2.425377e-009
7.999999968033578e-012	1.172623e-008
1.599999993606716e-011	6.881955e-008
2.916653964776090e-011	2.777209e-007
4.323424057418342e-011	7.008799e-007
6.089053650403193e-011	1.581351e-006
8.596602084527780e-011	3.362245e-006
1.126482749227895e-010	5.709517e-006
1.428354681476432e-010	8.513874e-006
1.749616387983309e-010	1.100719e-005
2.079676039570544e-010	1.224486e-005
2.417179512990564e-010	1.127144e-005
2.754767583691258e-010	7.323070e-006
3.060094996278455e-010	4.581134e-007
3.385982167406387e-010	-1.100402e-005
3.749540389504475e-010	-3.030320e-005
4.436332737898587e-010	-8.580405e-005
5.535377669393301e-010	-2.165999e-004
6.841918101641728e-010	-4.374757e-004
8.697627540508972e-010	-8.649683e-004
1.140049960876629e-009	-1.690816e-003
1.519688497083113e-009	-3.212921e-003
2.002316292013011e-009	-5.755162e-003
2.783566292013011e-009	-1.097213e-002
3.564816292013011e-009	-1.728691e-002
4.346066292013011e-009	-2.462769e-002
5.127316292013011e-009	-3.280684e-002
5.908566292013011e-009	-4.166862e-002
6.689816292013011e-009	-5.108378e-002
7.471066292013011e-009	-6.094433e-002
8.252316292013012e-009	-7.116034e-002
9.033566292013011e-009	-8.165640e-002
9.814816292013010e-009	-9.236923e-002
1.059606629201301e-008	-1.032455e-001
1.137731629201301e-008	-1.142400e-001
1.215856629201301e-008	-1.253144e-001
1.293981629201301e-008	-1.364358e-001
1.372106629201301e-008	-1.475758e-001
1.450231629201301e-008	-1.587100e-001
1.528356629201300e-008	-1.698168e-001
1.606481629201300e-008	-1.808773e-001
1.684606629201300e-008	-1.918746e-001
1.762731629201300e-008	-2.027936e-001
1.840856629201300e-008	-2.136205e-001
1.918981629201300e-008	-2.243426e-001
1.997106629201300e-008	-2.349479e-001
2.075231629201300e-008	-2.454251e-001
2.153356629201300e-008	-2.557629e-001
2.231481629201300e-008	-2.659498e-001
2.309606629201300e-008	-2.759731e-001
2.387731629201300e-008	-2.858189e-001
2.465856629201299e-008	-2.954713e-001
2.543981629201299e-008	-3.049124e-001
2.622106629201299e-008	-3.141234e-001
2.700231629201299e-008	-3.230844e-001
2.778356629201299e-008	-3.317747e-001
2.856481629201299e-008	-3.401720e-001
2.934606629201299e-008	-3.482519e-001
3.012731629201299e-008	-3.559876e-001
3.090856629201299e-008	-3.633497e-001
3.168981629201299e-008	-3.703068e-001
3.247106629201299e-008	-3.768257e-001
3.325231629201299e-008	-3.828726e-001
3.403356629201299e-008	-3.884136e-001
3.481481629201299e-008	-3.934156e-001
3.559606629201299e-008	-3.978510e-001
3.637731629201298e-008	-4.017069e-001
3.715856629201298e-008	-4.049959e-001
3.793981629201298e-008	-4.077584e-001
3.872106629201298e-008	-4.100552e-001
3.950231629201298e-008	-4.119596e-001
4.022680995791890e-008	-4.134212e-001
4.100805995791890e-008	-4.147244e-001
4.178930995791890e-008	-4.158024e-001
4.257055995791890e-008	-4.166906e-001
4.335180995791890e-008	-4.174224e-001
4.413305995791890e-008	-4.180258e-001
4.491430995791889e-008	-4.185233e-001
4.647680995791889e-008	-4.192724e-001
4.803930995791889e-008	-4.197823e-001
4.960180995791889e-008	-4.201284e-001
5.038305995791889e-008	-4.202566e-001
5.194555995791889e-008	-4.204462e-001
5.428930995791888e-008	-4.206094e-001
5.585180995791888e-008	-4.206601e-001
5.741430995791888e-008	-4.206744e-001
5.819555995791888e-008	-4.206689e-001
5.897680995791888e-008	-4.206552e-001
5.975805995791888e-008	-4.206329e-001
6.053930995791888e-008	-4.206015e-001
6.132055995791889e-008	-4.205601e-001
6.210180995791890e-008	-4.205074e-001
6.288305995791890e-008	-4.204414e-001
6.366430995791891e-008	-4.203597e-001
6.444555995791891e-008	-4.202582e-001
6.522680995791892e-008	-4.201315e-001
6.600805995791892e-008	-4.199709e-001
6.678930995791893e-008	-4.197629e-001
6.757055995791894e-008	-4.194846e-001
6.835180995791894e-008	-4.190959e-001
6.913305995791895e-008	-4.185242e-001
6.991430995791895e-008	-4.176385e-001
7.069555995791896e-008	-4.162757e-001
7.129605677328982e-008	-4.147308e-001
7.177436656504110e-008	-4.130116e-001
7.227137704111039e-008	-4.106348e-001
7.293734434891568e-008	-4.066045e-001
7.371859434891568e-008	-4.009979e-001
7.433737458830568e-008	-3.960183e-001
7.503031818481778e-008	-3.900139e-001
7.572176940019724e-008	-3.836986e-001
7.650301940019724e-008	-3.762276e-001
7.728426940019725e-008	-3.684527e-001
7.806551940019725e-008	-3.603974e-001
7.884676940019726e-008	-3.520871e-001
7.962801940019727e-008	-3.435408e-001
8.040926940019727e-008	-3.347728e-001
8.119051940019728e-008	-3.257941e-001
8.197176940019728e-008	-3.166138e-001
8.275301940019729e-008	-3.072398e-001
8.353426940019729e-008	-2.976791e-001
8.431551940019730e-008	-2.879384e-001
8.509676940019731e-008	-2.780243e-001
8.587801940019731e-008	-2.679431e-001
8.665926940019732e-008	-2.577012e-001
8.744051940019732e-008	-2.473048e-001
8.822176940019733e-008	-2.367603e-001
8.900301940019734e-008	-2.260742e-001
8.978426940019734e-008	-2.152528e-001
9.056551940019735e-008	-2.043028e-001
9.134676940019735e-008	-1.932305e-001
9.212801940019736e-008	-1.820427e-001
9.290926940019736e-008	-1.707460e-001
9.369051940019737e-008	-1.593470e-001
9.447176940019738e-008	-1.478525e-001
9.525301940019738e-008	-1.362692e-001
9.603426940019739e-008	-1.246039e-001
9.681551940019739e-008	-1.128635e-001
9.759676940019740e-008	-1.010550e-001
9.837801940019740e-008	-8.918524e-002
9.915926940019741e-008	-7.726135e-002
9.994051940019742e-008	-6.529044e-002
1.007217694001974e-007	-5.327971e-002
1.015030194001974e-007	-4.123640e-002
1.022842694001974e-007	-2.916779e-002
1.030655194001974e-007	-1.708122e-002
1.038467694001974e-007	-4.984050e-003
1.046280194001975e-007	7.116338e-003
1.054092694001975e-007	1.921256e-002
1.061905194001975e-007	3.129723e-002
1.069717694001975e-007	4.336298e-002
1.077530194001975e-007	5.540247e-002
1.085342694001975e-007	6.740834e-002
1.093155194001975e-007	7.937330e-002
1.100967694001975e-007	9.129007e-002
1.108780194001975e-007	1.031514e-001
1.116592694001975e-007	1.149501e-001
1.124405194001975e-007	1.266790e-001
1.132217694001975e-007	1.383308e-001
1.140030194001975e-007	1.498986e-001
1.147842694001975e-007	1.613751e-001
1.155655194001975e-007	1.727533e-001
1.163467694001975e-007	1.840261e-001
1.171280194001975e-007	1.951865e-001
1.179092694001976e-007	2.062273e-001
1.186905194001976e-007	2.171415e-001
1.194717694001976e-007	2.279218e-001
1.202530194001976e-007	2.385606e-001
1.210342694001975e-007	2.490499e-001
1.218155194001975e-007	2.593804e-001
1.225967694001975e-007	2.695408e-001
1.233780194001975e-007	2.795172e-001
1.241592694001975e-007	2.892930e-001
1.249405194001975e-007	2.988493e-001
1.257217694001975e-007	3.081659e-001
1.265030194001975e-007	3.172216e-001
1.272842694001975e-007	3.259932e-001
1.280655194001975e-007	3.344554e-001
1.288467694001975e-007	3.425796e-001
1.296280194001975e-007	3.503322e-001
1.304092694001975e-007	3.576691e-001
1.311905194001975e-007	3.645196e-001
1.319717694001974e-007	3.707684e-001
1.327530194001974e-007	3.762799e-001
1.335342694001974e-007	3.809774e-001
1.343155194001974e-007	3.848942e-001
1.350967694001974e-007	3.881347e-001
1.358780194001974e-007	3.908128e-001
1.366592694001974e-007	3.930272e-001
1.374405194001974e-007	3.948607e-001
1.382217694001974e-007	3.963818e-001
1.390030194001974e-007	3.976465e-001
1.397842694001974e-007	3.987009e-001
1.405655194001974e-007	3.995822e-001
1.413467694001974e-007	4.003210e-001
1.421280194001973e-007	4.009422e-001
1.429092694001973e-007	4.014658e-001
1.436905194001973e-007	4.019084e-001
1.444717694001973e-007	4.022833e-001
1.452530194001973e-007	4.026013e-001
1.468155194001973e-007	4.031002e-001
1.483780194001973e-007	4.034579e-001
1.499405194001973e-007	4.037089e-001
1.515030194001973e-007	4.038760e-001
1.530655194001972e-007	4.039739e-001
1.546280194001972e-007	4.040118e-001
1.561905194001972e-007	4.039950e-001
1.569717694001972e-007	4.039668e-001
1.577530194001972e-007	4.039257e-001
1.585342694001972e-007	4.038714e-001
1.593155194001972e-007	4.038036e-001
1.600967694001972e-007	4.037219e-001
1.608780194001972e-007	4.036258e-001
1.616592694001972e-007	4.035142e-001
1.624405194001972e-007	4.033861e-001
1.632217694001971e-007	4.032399e-001
1.640030194001971e-007	4.030735e-001
1.647842694001971e-007	4.028842e-001
1.655655194001971e-007	4.026683e-001
1.663467694001971e-007	4.024201e-001
1.671280194001971e-007	4.021314e-001
1.679092694001971e-007	4.017891e-001
1.686905194001971e-007	4.013699e-001
1.694717694001971e-007	4.008310e-001
1.702530194001971e-007	4.000927e-001
1.710342694001971e-007	3.990206e-001
1.718155194001971e-007	3.974278e-001
1.725967694001971e-007	3.951132e-001
1.733780194001970e-007	3.919294e-001
1.741592694001970e-007	3.878371e-001
1.749405194001970e-007	3.829028e-001
1.757217694001970e-007	3.772420e-001
1.765030194001970e-007	3.709659e-001
1.772842694001970e-007	3.641629e-001
1.780655194001970e-007	3.569036e-001
1.788467694001970e-007	3.492452e-001
1.796280194001970e-007	3.412340e-001
1.804092694001970e-007	3.329068e-001
1.811905194001970e-007	3.242924e-001
1.819717694001970e-007	3.154141e-001
1.827530194001970e-007	3.062907e-001
1.835342694001970e-007	2.969383e-001
1.843155194001969e-007	2.873709e-001
1.850967694001969e-007	2.776007e-001
1.858780194001969e-007	2.676393e-001
1.866592694001969e-007	2.574969e-001
1.874405194001969e-007	2.471832e-001
1.882217694001969e-007	2.367074e-001
1.890030194001969e-007	2.260783e-001
1.897842694001969e-007	2.153043e-001
1.905655194001969e-007	2.043933e-001
1.913467694001969e-007	1.933534e-001
1.921280194001969e-007	1.821923e-001
1.929092694001969e-007	1.709176e-001
1.936905194001969e-007	1.595367e-001
1.944717694001968e-007	1.480571e-001
1.952530194001968e-007	1.364863e-001
1.960342694001968e-007	1.248315e-001
1.968155194001968e-007	1.131000e-001
1.975967694001968e-007	1.012992e-001
1.983780194001968e-007	8.943629e-002
1.991592694001968e-007	7.751869e-002
1.999405194001968e-007	6.555369e-002
2.007217694001968e-007	5.354863e-002
2.015030194001968e-007	4.151082e-002
2.022842694001968e-007	2.944765e-002
2.030655194001968e-007	1.736645e-002
2.038467694001968e-007	5.274583e-003
2.046280194001967e-007	-6.820602e-003
2.054092694001967e-007	-1.891177e-002
2.061905194001967e-007	-3.099162e-002
2.069717694001967e-007	-4.305286e-002
2.077530194001967e-007	-5.508825e-002
2.085342694001967e-007	-6.709056e-002
2.093155194001967e-007	-7.905261e-002
2.100967694001967e-007	-9.096727e-002
2.108780194001967e-007	-1.028274e-001
2.116592694001967e-007	-1.146259e-001
2.124405194001967e-007	-1.263557e-001
2.132217694001967e-007	-1.380097e-001
2.140030194001967e-007	-1.495809e-001
2.147842694001967e-007	-1.610620e-001
2.155655194001966e-007	-1.724462e-001
2.163467694001966e-007	-1.837262e-001
2.171280194001966e-007	-1.948950e-001
2.179092694001966e-007	-2.059454e-001
2.186905194001966e-007	-2.168702e-001
2.194717694001966e-007	-2.276620e-001
2.202530194001966e-007	-2.383135e-001
2.210342694001966e-007	-2.488167e-001
2.218155194001966e-007	-2.591631e-001
2.225967694001966e-007	-2.693433e-001
2.233780194001966e-007	-2.793462e-001
2.241592694001966e-007	-2.891586e-001
2.249405194001966e-007	-2.987653e-001
2.257217694001965e-007	-3.081490e-001
2.265030194001965e-007	-3.172914e-001
2.272842694001965e-007	-3.261730e-001
2.280655194001965e-007	-3.347733e-001
2.288467694001965e-007	-3.430697e-001
2.296280194001965e-007	-3.510375e-001
2.304092694001965e-007	-3.586492e-001
2.311905194001965e-007	-3.658749e-001
2.319717694001965e-007	-3.726826e-001
2.327530194001965e-007	-3.790392e-001
2.335342694001965e-007	-3.849108e-001
2.343155194001965e-007	-3.902637e-001
2.350967694001965e-007	-3.950662e-001
2.358780194001964e-007	-3.992947e-001
2.366592694001964e-007	-4.029446e-001
2.374405194001964e-007	-4.060389e-001
2.382217694001964e-007	-4.086268e-001
2.390030194001964e-007	-4.107730e-001
2.397842694001965e-007	-4.125520e-001
2.404925871994683e-007	-4.138875e-001
2.412738371994684e-007	-4.151065e-001
2.420550871994684e-007	-4.161162e-001
2.428363371994684e-007	-4.169480e-001
2.436175871994684e-007	-4.176336e-001
2.443988371994684e-007	-4.181989e-001
2.451800871994685e-007	-4.186650e-001
2.467425871994685e-007	-4.193670e-001
2.483050871994685e-007	-4.198446e-001
2.498675871994686e-007	-4.201686e-001
2.506488371994686e-007	-4.202883e-001
2.522113371994686e-007	-4.204648e-001
2.545550871994687e-007	-4.206147e-001
2.561175871994687e-007	-4.206588e-001
2.576800871994688e-007	-4.206673e-001
2.584613371994688e-007	-4.206591e-001
2.592425871994688e-007	-4.206425e-001
2.600238371994688e-007	-4.206172e-001
2.608050871994688e-007	-4.205825e-001
2.615863371994689e-007	-4.205374e-001
2.623675871994689e-007	-4.204805e-001
2.631488371994689e-007	-4.204095e-001
2.639300871994689e-007	-4.203215e-001
2.647113371994689e-007	-4.202121e-001
2.654925871994689e-007	-4.200751e-001
2.662738371994690e-007	-4.199002e-001
2.670550871994690e-007	-4.196715e-001
2.678363371994690e-007	-4.193614e-001
2.686175871994690e-007	-4.189209e-001
2.693988371994690e-007	-4.182608e-001
2.701800871994691e-007	-4.172234e-001
2.709613371994691e-007	-4.156370e-001
2.715078172807390e-007	-4.139924e-001
2.720767527180907e-007	-4.116163e-001
2.726129788362712e-007	-4.086767e-001
2.733942288362712e-007	-4.034203e-001
2.740684984260951e-007	-3.982347e-001
2.746860178593061e-007	-3.930441e-001
2.753481858155664e-007	-3.871409e-001
2.761294358155664e-007	-3.798310e-001
2.769106858155664e-007	-3.722015e-001
2.776919358155664e-007	-3.642765e-001
2.784731858155665e-007	-3.560853e-001
2.792544358155665e-007	-3.476497e-001
2.800356858155665e-007	-3.389861e-001
2.808169358155665e-007	-3.301069e-001
2.815981858155665e-007	-3.210220e-001
2.823794358155666e-007	-3.117396e-001
2.831606858155666e-007	-3.022673e-001
2.839419358155666e-007	-2.926118e-001
2.847231858155666e-007	-2.827798e-001
2.855044358155666e-007	-2.727777e-001
2.862856858155667e-007	-2.626119e-001
2.870669358155667e-007	-2.522885e-001
2.878481858155667e-007	-2.418140e-001
2.886294358155667e-007	-2.311948e-001
2.894106858155667e-007	-2.204373e-001
2.901919358155667e-007	-2.095480e-001
2.909731858155668e-007	-1.985334e-001
2.917544358155668e-007	-1.874000e-001
2.925356858155668e-007	-1.761545e-001
2.933169358155668e-007	-1.648036e-001
2.940981858155668e-007	-1.533539e-001
2.948794358155669e-007	-1.418122e-001
2.956606858155669e-007	-1.301853e-001
2.964419358155669e-007	-1.184800e-001
2.972231858155669e-007	-1.067031e-001
2.980044358155669e-007	-9.486178e-002
2.987856858155670e-007	-8.296290e-002
2.995669358155670e-007	-7.101358e-002
3.003481858155670e-007	-5.902100e-002
3.011294358155670e-007	-4.699236e-002
3.019106858155670e-007	-3.493493e-002
3.026919358155671e-007	-2.285603e-002
3.034731858155671e-007	-1.076301e-002
3.042544358155671e-007	1.336758e-003
3.050356858155671e-007	1.343589e-002
3.058169358155671e-007	2.552701e-002
3.065981858155671e-007	3.760273e-002
3.073794358155672e-007	4.965569e-002
3.081606858155672e-007	6.167854e-002
3.089419358155672e-007	7.366397e-002
3.097231858155672e-007	8.560470e-002
3.105044358155672e-007	9.749345e-002
3.112856858155673e-007	1.093230e-001
3.120669358155673e-007	1.210862e-001
3.128481858155673e-007	1.327757e-001
3.136294358155673e-007	1.443846e-001
3.144106858155673e-007	1.559056e-001
3.151919358155674e-007	1.673317e-001
3.159731858155674e-007	1.786558e-001
3.167544358155674e-007	1.898708e-001
3.175356858155674e-007	2.009697e-001
3.183169358155674e-007	2.119453e-001
3.190981858155675e-007	2.227906e-001
3.198794358155675e-007	2.334980e-001
3.206606858155675e-007	2.440599e-001
3.214419358155675e-007	2.544676e-001
3.222231858155675e-007	2.647108e-001
3.230044358155675e-007	2.747771e-001
3.237856858155676e-007	2.846511e-001
3.245669358155676e-007	2.943148e-001
3.253481858155676e-007	3.037486e-001
3.261294358155676e-007	3.129318e-001
3.269106858155676e-007	3.218423e-001
3.276919358155677e-007	3.304558e-001
3.284731858155677e-007	3.387454e-001
3.292544358155677e-007	3.466803e-001
3.300356858155677e-007	3.542227e-001
3.308169358155677e-007	3.613171e-001
3.315981858155678e-007	3.678706e-001
3.323794358155678e-007	3.737499e-001
3.331606858155678e-007	3.788392e-001
3.339419358155678e-007	3.831188e-001
3.347231858155678e-007	3.866680e-001
3.355044358155678e-007	3.896016e-001
3.362856858155679e-007	3.920265e-001
3.370669358155679e-007	3.940327e-001
3.378481858155679e-007	3.956955e-001
3.386294358155679e-007	3.970765e-001
3.394106858155679e-007	3.982263e-001
3.401919358155680e-007	3.991861e-001
3.409731858155680e-007	3.999897e-001
3.417544358155680e-007	4.006643e-001
3.425356858155680e-007	4.012323e-001
3.433169358155680e-007	4.017118e-001
3.440981858155681e-007	4.021176e-001
3.448794358155681e-007	4.024615e-001
3.464419358155681e-007	4.030012e-001
3.480044358155682e-007	4.033890e-001
3.495669358155682e-007	4.036631e-001
3.511294358155682e-007	4.038486e-001
3.526919358155683e-007	4.039620e-001
3.542544358155683e-007	4.040137e-001
3.558169358155683e-007	4.040096e-001
3.565981858155684e-007	4.039877e-001
3.573794358155684e-007	4.039528e-001
3.581606858155684e-007	4.039048e-001
3.589419358155684e-007	4.038435e-001
3.597231858155684e-007	4.037686e-001
3.605044358155685e-007	4.036795e-001
3.612856858155685e-007	4.035754e-001
3.620669358155685e-007	4.034553e-001
3.628481858155685e-007	4.033180e-001
3.636294358155685e-007	4.031616e-001
3.644106858155686e-007	4.029836e-001
3.651919358155686e-007	4.027810e-001
3.659731858155686e-007	4.025491e-001
3.667544358155686e-007	4.022810e-001
3.675356858155686e-007	4.019665e-001
3.683169358155686e-007	4.015878e-001
3.690981858155687e-007	4.011135e-001
3.698794358155687e-007	4.004836e-001
3.706606858155687e-007	3.995917e-001
3.714419358155687e-007	3.982735e-001
3.722231858155687e-007	3.963275e-001
3.730044358155688e-007	3.935717e-001
3.737856858155688e-007	3.899112e-001
3.745669358155688e-007	3.853667e-001
3.753481858155688e-007	3.800383e-001
3.761294358155688e-007	3.740441e-001
3.769106858155689e-007	3.674833e-001
3.776919358155689e-007	3.604344e-001
3.784731858155689e-007	3.529605e-001
3.792544358155689e-007	3.451128e-001
3.800356858155689e-007	3.369327e-001
3.808169358155690e-007	3.284525e-001
3.815981858155690e-007	3.196978e-001
3.823794358155690e-007	3.106895e-001
3.831606858155690e-007	3.014447e-001
3.839419358155690e-007	2.919785e-001
3.847231858155690e-007	2.823038e-001
3.855044358155691e-007	2.724325e-001
3.862856858155691e-007	2.623754e-001
3.870669358155691e-007	2.521424e-001
3.878481858155691e-007	2.417431e-001
3.886294358155691e-007	2.311862e-001
3.894106858155692e-007	2.204805e-001
3.901919358155692e-007	2.096340e-001
3.909731858155692e-007	1.986548e-001
3.917544358155692e-007	1.875507e-001
3.925356858155692e-007	1.763293e-001
3.933169358155693e-007	1.649982e-001
3.940981858155693e-007	1.535650e-001
3.948794358155693e-007	1.420369e-001
3.956606858155693e-007	1.304213e-001
3.964419358155693e-007	1.187255e-001
3.972231858155693e-007	1.069569e-001
3.980044358155694e-007	9.512283e-002
3.987856858155694e-007	8.323050e-002
3.995669358155694e-007	7.128725e-002
4.003481858155694e-007	5.930043e-002
4.011294358155694e-007	4.727736e-002
4.019106858155695e-007	3.522541e-002
4.026919358155695e-007	2.315190e-002
4.034731858155695e-007	1.106422e-002
4.042544358155695e-007	-1.030291e-003
4.050356858155695e-007	-1.312429e-002
4.058169358155696e-007	-2.521047e-002
4.065981858155696e-007	-3.728151e-002
4.073794358155696e-007	-4.933016e-002
4.081606858155696e-007	-6.134919e-002
4.089419358155696e-007	-7.333139e-002
4.097231858155697e-007	-8.526960e-002
4.105044358155697e-007	-9.715669e-002
4.112856858155697e-007	-1.089856e-001
4.120669358155697e-007	-1.207491e-001
4.128481858155697e-007	-1.324402e-001
4.136294358155697e-007	-1.440519e-001
4.144106858155698e-007	-1.555770e-001
4.151919358155698e-007	-1.670084e-001
4.159731858155698e-007	-1.783391e-001
4.167544358155698e-007	-1.895620e-001
4.175356858155698e-007	-2.006698e-001
4.183169358155699e-007	-2.116556e-001
4.190981858155699e-007	-2.225119e-001
4.198794358155699e-007	-2.332315e-001
4.206606858155699e-007	-2.438066e-001
4.214419358155699e-007	-2.542291e-001
4.222231858155700e-007	-2.644901e-001
4.230044358155700e-007	-2.745792e-001
4.237856858155700e-007	-2.844845e-001
4.245669358155700e-007	-2.941917e-001
4.253481858155700e-007	-3.036842e-001
4.261294358155701e-007	-3.129444e-001
4.269106858155701e-007	-3.219532e-001
4.276919358155701e-007	-3.306907e-001
4.284731858155701e-007	-3.391353e-001
4.292544358155701e-007	-3.472635e-001
4.300356858155701e-007	-3.550491e-001
4.308169358155702e-007	-3.624633e-001
4.315981858155702e-007	-3.694750e-001
4.323794358155702e-007	-3.760515e-001
4.331606858155702e-007	-3.821593e-001
4.339419358155702e-007	-3.877644e-001
4.347231858155703e-007	-3.928338e-001
4.355044358155703e-007	-3.973388e-001
4.362856858155703e-007	-4.012644e-001
4.370669358155703e-007	-4.046197e-001
4.378481858155703e-007	-4.074424e-001
4.386294358155704e-007	-4.097913e-001
4.394106858155704e-007	-4.117392e-001
4.401415403288086e-007	-4.132469e-001
4.409227903288086e-007	-4.145791e-001
4.417040403288086e-007	-4.156806e-001
4.424852903288086e-007	-4.165881e-001
4.432665403288086e-007	-4.173359e-001
4.440477903288087e-007	-4.179523e-001
4.448290403288087e-007	-4.184605e-001
4.456102903288087e-007	-4.188799e-001
4.471727903288087e-007	-4.195113e-001
4.487352903288088e-007	-4.199407e-001
4.502977903288088e-007	-4.202314e-001
4.518602903288088e-007	-4.204254e-001
4.542040403288089e-007	-4.205931e-001
4.557665403288089e-007	-4.206461e-001
4.573290403288090e-007	-4.206622e-001
4.581102903288090e-007	-4.206577e-001
4.588915403288090e-007	-4.206449e-001
4.596727903288090e-007	-4.206236e-001
4.604540403288091e-007	-4.205932e-001
4.612352903288091e-007	-4.205530e-001
4.620165403288091e-007	-4.205016e-001
4.627977903288091e-007	-4.204372e-001
4.635790403288091e-007	-4.203573e-001
4.643602903288091e-007	-4.202582e-001
4.651415403288092e-007	-4.201346e-001
4.659227903288092e-007	-4.199782e-001
4.667040403288092e-007	-4.197763e-001
4.674852903288092e-007	-4.195072e-001
4.682665403288092e-007	-4.191334e-001
4.690477903288093e-007	-4.185866e-001
4.698290403288093e-007	-4.177440e-001
4.706102903288093e-007	-4.164444e-001
4.712327280414706e-007	-4.149098e-001
4.717185472233733e-007	-4.132256e-001
4.722114962094052e-007	-4.109396e-001
4.728501594316495e-007	-4.071661e-001
4.736314094316495e-007	-4.016523e-001
4.742604486848269e-007	-3.966445e-001
4.749617806807631e-007	-3.906109e-001
4.756270788324164e-007	-3.845695e-001
4.764083288324164e-007	-3.771361e-001
4.771895788324164e-007	-3.693973e-001
4.779708288324164e-007	-3.613745e-001
4.787520788324164e-007	-3.530939e-001
4.795333288324165e-007	-3.445754e-001
4.803145788324165e-007	-3.358336e-001
4.810958288324165e-007	-3.268799e-001
4.818770788324165e-007	-3.177237e-001
4.826583288324165e-007	-3.083727e-001
4.834395788324165e-007	-2.988343e-001
4.842208288324166e-007	-2.891151e-001
4.850020788324166e-007	-2.792217e-001
4.857833288324166e-007	-2.691604e-001
4.865645788324166e-007	-2.589376e-001
4.873458288324166e-007	-2.485596e-001
4.881270788324167e-007	-2.380327e-001
4.889083288324167e-007	-2.273634e-001
4.896895788324167e-007	-2.165581e-001
4.904708288324167e-007	-2.056233e-001
4.912520788324167e-007	-1.945655e-001
4.920333288324168e-007	-1.833914e-001
4.928145788324168e-007	-1.721075e-001
4.935958288324168e-007	-1.607206e-001
4.943770788324168e-007	-1.492373e-001
4.951583288324168e-007	-1.376643e-001
4.959395788324169e-007	-1.260087e-001
4.967208288324169e-007	-1.142770e-001
4.975020788324169e-007	-1.024764e-001
4.982833288324169e-007	-9.061365e-002
4.990645788324169e-007	-7.869595e-002
4.998458288324169e-007	-6.673037e-002
5.006270788324170e-007	-5.472407e-002
5.014083288324170e-007	-4.268432e-002
5.021895788324170e-007	-3.061838e-002
5.029708288324170e-007	-1.853360e-002
5.037520788324170e-007	-6.437323e-003
5.045333288324171e-007	5.663068e-003
5.053145788324171e-007	1.776019e-002
5.060958288324171e-007	2.984666e-002
5.068770788324171e-007	4.191509e-002
5.076583288324171e-007	5.395815e-002
5.084395788324172e-007	6.596848e-002
5.092208288324172e-007	7.793879e-002
5.100020788324172e-007	8.986180e-002
5.107833288324172e-007	1.017302e-001
5.115645788324172e-007	1.135369e-001
5.123458288324173e-007	1.252746e-001
5.131270788324173e-007	1.369362e-001
5.139083288324173e-007	1.485145e-001
5.146895788324173e-007	1.600025e-001
5.154708288324173e-007	1.713930e-001
5.162520788324173e-007	1.826789e-001
5.170333288324174e-007	1.938533e-001
5.178145788324174e-007	2.049090e-001
5.185958288324174e-007	2.158389e-001
5.193770788324174e-007	2.266358e-001
5.201583288324174e-007	2.372922e-001
5.209395788324175e-007	2.478001e-001
5.217208288324175e-007	2.581504e-001
5.225020788324175e-007	2.683320e-001
5.232833288324175e-007	2.783316e-001
5.240645788324175e-007	2.881327e-001
5.248458288324176e-007	2.977166e-001
5.256270788324176e-007	3.070634e-001
5.264083288324176e-007	3.161519e-001
5.271895788324176e-007	3.249592e-001
5.279708288324176e-007	3.334603e-001
5.287520788324177e-007	3.416271e-001
5.295333288324177e-007	3.494267e-001
5.303145788324177e-007	3.568170e-001
5.310958288324177e-007	3.637316e-001
5.318770788324177e-007	3.700606e-001
5.326583288324177e-007	3.756673e-001
5.334395788324178e-007	3.804637e-001
5.342208288324178e-007	3.844700e-001
5.350020788324178e-007	3.877861e-001
5.357833288324178e-007	3.905267e-001
5.365645788324178e-007	3.927925e-001
5.373458288324179e-007	3.946683e-001
5.381270788324179e-007	3.962240e-001
5.389083288324179e-007	3.975171e-001
5.396895788324179e-007	3.985947e-001
5.404708288324179e-007	3.994952e-001
5.412520788324180e-007	4.002499e-001
5.420333288324180e-007	4.008842e-001
5.428145788324180e-007	4.014187e-001
5.435958288324180e-007	4.018703e-001
5.443770788324180e-007	4.022528e-001
5.451583288324180e-007	4.025771e-001
5.467208288324181e-007	4.030861e-001
5.482833288324181e-007	4.034512e-001
5.498458288324182e-007	4.037079e-001
5.514083288324182e-007	4.038796e-001
5.529708288324182e-007	4.039814e-001
5.545333288324183e-007	4.040228e-001
5.560958288324183e-007	4.040092e-001
5.568770788324183e-007	4.039826e-001
5.576583288324184e-007	4.039430e-001
5.584395788324184e-007	4.038903e-001
5.592208288324184e-007	4.038242e-001
5.600020788324184e-007	4.037443e-001
5.607833288324184e-007	4.036499e-001
5.615645788324184e-007	4.035403e-001
5.623458288324185e-007	4.034142e-001
5.631270788324185e-007	4.032703e-001
5.639083288324185e-007	4.031065e-001
5.646895788324185e-007	4.029202e-001
5.654708288324185e-007	4.027077e-001
5.662520788324186e-007	4.024637e-001
5.670333288324186e-007	4.021806e-001
5.678145788324186e-007	4.018457e-001
5.685958288324186e-007	4.014376e-001
5.693770788324186e-007	4.009166e-001
5.701583288324187e-007	4.002084e-001
5.709395788324187e-007	3.991860e-001
5.717208288324187e-007	3.976674e-001
5.725020788324187e-007	3.954500e-001
5.732833288324187e-007	3.923762e-001
5.740645788324188e-007	3.883924e-001
5.748458288324188e-007	3.835545e-001
5.756270788324188e-007	3.779756e-001
5.764083288324188e-007	3.717690e-001
5.771895788324188e-007	3.650259e-001
5.779708288324188e-007	3.578187e-001
5.787520788324189e-007	3.502061e-001
5.795333288324189e-007	3.422355e-001
5.803145788324189e-007	3.339449e-001
5.810958288324189e-007	3.253641e-001
5.818770788324189e-007	3.165168e-001
5.826583288324190e-007	3.074222e-001
5.834395788324190e-007	2.980968e-001
5.842208288324190e-007	2.885547e-001
5.850020788324190e-007	2.788085e-001
5.857833288324190e-007	2.688697e-001
5.865645788324191e-007	2.587487e-001
5.873458288324191e-007	2.484553e-001
5.881270788324191e-007	2.379987e-001
5.889083288324191e-007	2.273878e-001
5.896895788324191e-007	2.166308e-001
5.904708288324192e-007	2.057361e-001
5.912520788324192e-007	1.947114e-001
5.920333288324192e-007	1.835645e-001
5.928145788324192e-007	1.723032e-001
5.935958288324192e-007	1.609348e-001
5.943770788324192e-007	1.494668e-001
5.951583288324193e-007	1.379066e-001
5.959395788324193e-007	1.262615e-001
5.967208288324193e-007	1.145390e-001
5.975020788324193e-007	1.027462e-001
5.982833288324193e-007	9.089043e-002
5.990645788324194e-007	7.897907e-002
5.998458288324194e-007	6.701943e-002
6.006270788324194e-007	5.501883e-002
6.014083288324194e-007	4.298461e-002
6.021895788324194e-007	3.092412e-002
6.029708288324195e-007	1.884471e-002
6.037520788324195e-007	6.753745e-003
6.045333288324195e-007	-5.341427e-003
6.053145788324195e-007	-1.743348e-002
6.060958288324195e-007	-2.951508e-002
6.068770788324195e-007	-4.157897e-002
6.076583288324196e-007	-5.361787e-002
6.084395788324196e-007	-6.562457e-002
6.092208288324196e-007	-7.759189e-002
6.100020788324196e-007	-8.951267e-002
6.107833288324196e-007	-1.013798e-001
6.115645788324197e-007	-1.131861e-001
6.123458288324197e-007	-1.249246e-001
6.131270788324197e-007	-1.365882e-001
6.139083288324197e-007	-1.481698e-001
6.146895788324197e-007	-1.596622e-001
6.154708288324198e-007	-1.710585e-001
6.162520788324198e-007	-1.823516e-001
6.170333288324198e-007	-1.935342e-001
6.178145788324198e-007	-2.045993e-001
6.185958288324198e-007	-2.155397e-001
6.193770788324199e-007	-2.263481e-001
6.201583288324199e-007	-2.370170e-001
6.209395788324199e-007	-2.475386e-001
6.217208288324199e-007	-2.579045e-001
6.225020788324199e-007	-2.681054e-001
6.232833288324199e-007	-2.781304e-001
6.240645788324200e-007	-2.879667e-001
6.248458288324200e-007	-2.975992e-001
6.256270788324200e-007	-3.070109e-001
6.264083288324200e-007	-3.161836e-001
6.271895788324200e-007	-3.250979e-001
6.279708288324201e-007	-3.337335e-001
6.287520788324201e-007	-3.420680e-001
6.295333288324201e-007	-3.500770e-001
6.303145788324201e-007	-3.577334e-001
6.310958288324201e-007	-3.650076e-001
6.318770788324202e-007	-3.718678e-001
6.326583288324202e-007	-3.782809e-001
6.334395788324202e-007	-3.842131e-001
6.342208288324202e-007	-3.896308e-001
6.350020788324202e-007	-3.945015e-001
6.357833288324203e-007	-3.988004e-001
6.365645788324203e-007	-4.025199e-001
6.373458288324203e-007	-4.056794e-001
6.381270788324203e-007	-4.083255e-001
6.389083288324203e-007	-4.105217e-001
6.396895788324203e-007	-4.123422e-001
6.404033306570909e-007	-4.137191e-001
6.411845806570910e-007	-4.149659e-001
6.419658306570910e-007	-4.159982e-001
6.427470806570910e-007	-4.168487e-001
6.435283306570910e-007	-4.175496e-001
6.443095806570910e-007	-4.181274e-001
6.450908306570911e-007	-4.186040e-001
6.466533306570911e-007	-4.193215e-001
6.482158306570911e-007	-4.198098e-001
6.497783306570912e-007	-4.201411e-001
6.505595806570912e-007	-4.202636e-001
6.521220806570912e-007	-4.204445e-001
6.544658306570913e-007	-4.205987e-001
6.560283306570913e-007	-4.206451e-001
6.575908306570914e-007	-4.206555e-001
6.583720806570914e-007	-4.206482e-001
6.591533306570914e-007	-4.206326e-001
6.599345806570914e-007	-4.206084e-001
6.607158306570914e-007	-4.205748e-001
6.614970806570915e-007	-4.205310e-001
6.622783306570915e-007	-4.204755e-001
6.630595806570915e-007	-4.204062e-001
6.638408306570915e-007	-4.203204e-001
6.646220806570915e-007	-4.202138e-001
6.654033306570916e-007	-4.200803e-001
6.661845806570916e-007	-4.199104e-001
6.669658306570916e-007	-4.196890e-001
6.677470806570916e-007	-4.193901e-001
6.685283306570916e-007	-4.189680e-001
6.693095806570917e-007	-4.183395e-001
6.700908306570917e-007	-4.173560e-001
6.708720806570917e-007	-4.158491e-001
6.714344166357308e-007	-4.142506e-001
6.719492610891897e-007	-4.122165e-001
6.724775944596263e-007	-4.094544e-001
6.732486412747481e-007	-4.044291e-001
6.740298912747481e-007	-3.985161e-001
6.746539860875616e-007	-3.933078e-001
6.753200535943390e-007	-3.873835e-001
6.761013035943390e-007	-3.800869e-001
6.768825535943390e-007	-3.724686e-001
6.776638035943391e-007	-3.645537e-001
6.784450535943391e-007	-3.563716e-001
6.792263035943391e-007	-3.479444e-001
6.800075535943391e-007	-3.392887e-001
6.807888035943391e-007	-3.304171e-001
6.815700535943392e-007	-3.213393e-001
6.823513035943392e-007	-3.120640e-001
6.831325535943392e-007	-3.025983e-001
6.839138035943392e-007	-2.929494e-001
6.846950535943392e-007	-2.831236e-001
6.854763035943393e-007	-2.731275e-001
6.862575535943393e-007	-2.629674e-001
6.870388035943393e-007	-2.526496e-001
6.878200535943393e-007	-2.421805e-001
6.886013035943393e-007	-2.315664e-001
6.893825535943394e-007	-2.208137e-001
6.901638035943394e-007	-2.099290e-001
6.909450535943394e-007	-1.989188e-001
6.917263035943394e-007	-1.877896e-001
6.925075535943394e-007	-1.765480e-001
6.932888035943394e-007	-1.652008e-001
6.940700535943395e-007	-1.537545e-001
6.948513035943395e-007	-1.422160e-001
6.956325535943395e-007	-1.305921e-001
6.964138035943395e-007	-1.188895e-001
6.971950535943395e-007	-1.071151e-001
6.979763035943396e-007	-9.527592e-002
6.987575535943396e-007	-8.337899e-002
6.995388035943396e-007	-7.143137e-002
7.003200535943396e-007	-5.944021e-002
7.011013035943396e-007	-4.741274e-002
7.018825535943397e-007	-3.535622e-002
7.026638035943397e-007	-2.327797e-002
7.034450535943397e-007	-1.118533e-002
7.042263035943397e-007	9.143284e-004
7.050075535943397e-007	1.301362e-002
7.057888035943398e-007	2.510515e-002
7.065700535943398e-007	3.718155e-002
7.073513035943398e-007	4.923546e-002
7.081325535943398e-007	6.125952e-002
7.089138035943398e-007	7.324643e-002
7.096950535943398e-007	8.518890e-002
7.104763035943399e-007	9.707964e-002
7.112575535943399e-007	1.089115e-001
7.120388035943399e-007	1.206771e-001
7.128200535943399e-007	1.323695e-001
7.136013035943399e-007	1.439814e-001
7.143825535943400e-007	1.555057e-001
7.151638035943400e-007	1.669353e-001
7.159450535943400e-007	1.782632e-001
7.167263035943400e-007	1.894822e-001
7.175075535943400e-007	2.005854e-001
7.182888035943401e-007	2.115656e-001
7.190700535943401e-007	2.224157e-001
7.198513035943401e-007	2.331282e-001
7.206325535943401e-007	2.436955e-001
7.214138035943401e-007	2.541089e-001
7.221950535943402e-007	2.643582e-001
7.229763035943402e-007	2.744312e-001
7.237575535943402e-007	2.843124e-001
7.245388035943402e-007	2.939840e-001
7.253200535943402e-007	3.034264e-001
7.261013035943402e-007	3.126190e-001
7.268825535943403e-007	3.215396e-001
7.276638035943403e-007	3.301642e-001
7.284450535943403e-007	3.384660e-001
7.292263035943403e-007	3.464143e-001
7.300075535943403e-007	3.539715e-001
7.307888035943404e-007	3.610833e-001
7.315700535943404e-007	3.676584e-001
7.323513035943404e-007	3.735641e-001
7.331325535943404e-007	3.786827e-001
7.339138035943404e-007	3.829904e-001
7.346950535943405e-007	3.865638e-001
7.354763035943405e-007	3.895175e-001
7.362575535943405e-007	3.919589e-001
7.370388035943405e-007	3.939788e-001
7.378200535943405e-007	3.956527e-001
7.386013035943405e-007	3.970429e-001
7.393825535943406e-007	3.982002e-001
7.401638035943406e-007	3.991662e-001
7.409450535943406e-007	3.999749e-001
7.417263035943406e-007	4.006537e-001
7.425075535943406e-007	4.012252e-001
7.432888035943407e-007	4.017076e-001
7.440700535943407e-007	4.021158e-001
7.448513035943407e-007	4.024618e-001
7.464138035943407e-007	4.030047e-001
7.479763035943408e-007	4.033948e-001
7.495388035943408e-007	4.036706e-001
7.511013035943409e-007	4.038576e-001
7.526638035943409e-007	4.039722e-001
7.542263035943409e-007	4.040249e-001
7.557888035943410e-007	4.040218e-001
7.565700535943410e-007	4.040004e-001
7.573513035943410e-007	4.039660e-001
7.581325535943410e-007	4.039184e-001
7.589138035943410e-007	4.038576e-001
7.596950535943411e-007	4.037831e-001
7.604763035943411e-007	4.036946e-001
7.612575535943411e-007	4.035910e-001
7.620388035943411e-007	4.034716e-001
7.628200535943411e-007	4.033349e-001
7.636013035943412e-007	4.031792e-001
7.643825535943412e-007	4.030021e-001
7.651638035943412e-007	4.028004e-001
7.659450535943412e-007	4.025696e-001
7.667263035943412e-007	4.023030e-001
7.675075535943413e-007	4.019904e-001
7.682888035943413e-007	4.016145e-001
7.690700535943413e-007	4.011444e-001
7.698513035943413e-007	4.005217e-001
7.706325535943413e-007	3.996418e-001
7.714138035943413e-007	3.983424e-001
7.721950535943414e-007	3.964227e-001
7.729763035943414e-007	3.936985e-001
7.737575535943414e-007	3.900712e-001
7.745388035943414e-007	3.855572e-001
7.753200535943414e-007	3.802551e-001
7.761013035943415e-007	3.742831e-001
7.768825535943415e-007	3.677414e-001
7.776638035943415e-007	3.607089e-001
7.784450535943415e-007	3.532494e-001
7.792263035943415e-007	3.454145e-001
7.800075535943416e-007	3.372457e-001
7.807888035943416e-007	3.287759e-001
7.815700535943416e-007	3.200307e-001
7.823513035943416e-007	3.110313e-001
7.831325535943416e-007	3.017948e-001
7.839138035943417e-007	2.923363e-001
7.846950535943417e-007	2.826689e-001
7.854763035943417e-007	2.728045e-001
7.862575535943417e-007	2.627539e-001
7.870388035943417e-007	2.525271e-001
7.878200535943417e-007	2.421336e-001
7.886013035943418e-007	2.315823e-001
7.893825535943418e-007	2.208817e-001
7.901638035943418e-007	2.100402e-001
7.909450535943418e-007	1.990656e-001
7.917263035943418e-007	1.879659e-001
7.925075535943419e-007	1.767486e-001
7.932888035943419e-007	1.654214e-001
7.940700535943419e-007	1.539916e-001
7.948513035943419e-007	1.424668e-001
7.956325535943419e-007	1.308542e-001
7.964138035943420e-007	1.191613e-001
7.971950535943420e-007	1.073952e-001
7.979763035943420e-007	9.556331e-002
7.987575535943420e-007	8.367295e-002
7.995388035943420e-007	7.173568e-002
8.000000000000000e-007	6.467054e-002
